<?xml version="1.0"?>
<opencv_storage>
<cascade>
  <stageType>BOOST</stageType>
  <featureType>HAAR</featureType>
  <height>24</height>
  <width>24</width>
  <stageParams>
    <boostType>GAB</boostType>
    <minHitRate>9.9900001287460327e-01</minHitRate>
    <maxFalseAlarm>5.0000000000000000e-01</maxFalseAlarm>
    <weightTrimRate>9.4999999999999996e-01</weightTrimRate>
    <maxDepth>1</maxDepth>
    <maxWeakCount>100</maxWeakCount></stageParams>
  <featureParams>
    <maxCatCount>0</maxCatCount>
    <featSize>1</featSize>
    <mode>BASIC</mode></featureParams>
  <stageNum>10</stageNum>
  <stages>
    <!-- stage 0 -->
    <_>
      <maxWeakCount>1</maxWeakCount>
      <stageThreshold>1.</stageThreshold>
      <weakClassifiers>
        <_>
          <internalNodes>
            0 -1 9 -4.5820366591215134e-02</internalNodes>
          <leafValues>
            -1. 1.</leafValues></_></weakClassifiers></_>
    <!-- stage 1 -->
    <_>
      <maxWeakCount>1</maxWeakCount>
      <stageThreshold>1.</stageThreshold>
      <weakClassifiers>
        <_>
          <internalNodes>
            0 -1 5 -9.0850189735647291e-05</internalNodes>
          <leafValues>
            1. -1.</leafValues></_></weakClassifiers></_>
    <!-- stage 2 -->
    <_>
      <maxWeakCount>1</maxWeakCount>
      <stageThreshold>9.0476191043853760e-01</stageThreshold>
      <weakClassifiers>
        <_>
          <internalNodes>
            0 -1 4 3.3315248787403107e-02</internalNodes>
          <leafValues>
            -1. 9.0476191043853760e-01</leafValues></_></weakClassifiers></_>
    <!-- stage 3 -->
    <_>
      <maxWeakCount>2</maxWeakCount>
      <stageThreshold>-6.2441430985927582e-02</stageThreshold>
      <weakClassifiers>
        <_>
          <internalNodes>
            0 -1 1 -2.8992658481001854e-03</internalNodes>
          <leafValues>
            9.3877553939819336e-01 -9.0196079015731812e-01</leafValues></_>
        <_>
          <internalNodes>
            0 -1 13 1.3401904143393040e-02</internalNodes>
          <leafValues>
            -9.2955422401428223e-01 8.3951938152313232e-01</leafValues></_></weakClassifiers></_>
    <!-- stage 4 -->
    <_>
      <maxWeakCount>2</maxWeakCount>
      <stageThreshold>-8.2791589200496674e-02</stageThreshold>
      <weakClassifiers>
        <_>
          <internalNodes>
            0 -1 19 7.4588041752576828e-03</internalNodes>
          <leafValues>
            -9.7826087474822998e-01 8.3333331346511841e-01</leafValues></_>
        <_>
          <internalNodes>
            0 -1 7 -1.5153241343796253e-02</internalNodes>
          <leafValues>
            8.9546930789947510e-01 -8.3356362581253052e-01</leafValues></_></weakClassifiers></_>
    <!-- stage 5 -->
    <_>
      <maxWeakCount>2</maxWeakCount>
      <stageThreshold>-1.5403777360916138e-01</stageThreshold>
      <weakClassifiers>
        <_>
          <internalNodes>
            0 -1 17 -6.4128719270229340e-02</internalNodes>
          <leafValues>
            -7.2173911333084106e-01 9.7647058963775635e-01</leafValues></_>
        <_>
          <internalNodes>
            0 -1 10 -4.2208668310195208e-04</internalNodes>
          <leafValues>
            5.6770133972167969e-01 -9.3430173397064209e-01</leafValues></_></weakClassifiers></_>
    <!-- stage 6 -->
    <_>
      <maxWeakCount>3</maxWeakCount>
      <stageThreshold>-6.7381417751312256e-01</stageThreshold>
      <weakClassifiers>
        <_>
          <internalNodes>
            0 -1 6 -1.7157710390165448e-03</internalNodes>
          <leafValues>
            9.0909093618392944e-01 -7.1428573131561279e-01</leafValues></_>
        <_>
          <internalNodes>
            0 -1 3 -8.9294109493494034e-03</internalNodes>
          <leafValues>
            8.4534478187561035e-01 -7.3016542196273804e-01</leafValues></_>
        <_>
          <internalNodes>
            0 -1 18 -3.1368881464004517e-02</internalNodes>
          <leafValues>
            -7.6081764698028564e-01 7.7063697576522827e-01</leafValues></_></weakClassifiers></_>
    <!-- stage 7 -->
    <_>
      <maxWeakCount>3</maxWeakCount>
      <stageThreshold>-3.3805483579635620e-01</stageThreshold>
      <weakClassifiers>
        <_>
          <internalNodes>
            0 -1 20 9.9541470408439636e-03</internalNodes>
          <leafValues>
            -6.3333332538604736e-01 9.4999998807907104e-01</leafValues></_>
        <_>
          <internalNodes>
            0 -1 2 -3.8172226399183273e-02</internalNodes>
          <leafValues>
            -5.7356762886047363e-01 8.3110803365707397e-01</leafValues></_>
        <_>
          <internalNodes>
            0 -1 16 3.8252866361290216e-03</internalNodes>
          <leafValues>
            -5.3582954406738281e-01 1.</leafValues></_></weakClassifiers></_>
    <!-- stage 8 -->
    <_>
      <maxWeakCount>3</maxWeakCount>
      <stageThreshold>-5.3406155109405518e-01</stageThreshold>
      <weakClassifiers>
        <_>
          <internalNodes>
            0 -1 11 -1.5362251549959183e-02</internalNodes>
          <leafValues>
            8.9361703395843506e-01 -7.9245281219482422e-01</leafValues></_>
        <_>
          <internalNodes>
            0 -1 0 4.4565130025148392e-02</internalNodes>
          <leafValues>
            -5.8753383159637451e-01 8.2609742879867554e-01</leafValues></_>
        <_>
          <internalNodes>
            0 -1 12 3.1413886696100235e-02</internalNodes>
          <leafValues>
            -5.6770616769790649e-01 8.5211378335952759e-01</leafValues></_></weakClassifiers></_>
    <!-- stage 9 -->
    <_>
      <maxWeakCount>3</maxWeakCount>
      <stageThreshold>-8.5866665840148926e-01</stageThreshold>
      <weakClassifiers>
        <_>
          <internalNodes>
            0 -1 14 -1.4085590839385986e-01</internalNodes>
          <leafValues>
            -9.1578948497772217e-01 8.2857143878936768e-01</leafValues></_>
        <_>
          <internalNodes>
            0 -1 15 -2.7321938425302505e-02</internalNodes>
          <leafValues>
            -5.7570356130599976e-01 1.</leafValues></_>
        <_>
          <internalNodes>
            0 -1 8 -1.3273125514388084e-03</internalNodes>
          <leafValues>
            -8.9498931169509888e-01 6.3282638788223267e-01</leafValues></_></weakClassifiers></_></stages>
  <features>
    <_>
      <rects>
        <_>
          0 10 10 14 -1.</_>
        <_>
          0 10 5 7 2.</_>
        <_>
          5 17 5 7 2.</_></rects>
      <tilted>0</tilted></_>
    <_>
      <rects>
        <_>
          0 14 10 1 -1.</_>
        <_>
          5 14 5 1 2.</_></rects>
      <tilted>0</tilted></_>
    <_>
      <rects>
        <_>
          1 4 23 6 -1.</_>
        <_>
          1 7 23 3 2.</_></rects>
      <tilted>0</tilted></_>
    <_>
      <rects>
        <_>
          4 6 8 5 -1.</_>
        <_>
          8 6 4 5 2.</_></rects>
      <tilted>0</tilted></_>
    <_>
      <rects>
        <_>
          5 13 7 10 -1.</_>
        <_>
          5 18 7 5 2.</_></rects>
      <tilted>0</tilted></_>
    <_>
      <rects>
        <_>
          6 5 8 6 -1.</_>
        <_>
          6 8 8 3 2.</_></rects>
      <tilted>0</tilted></_>
    <_>
      <rects>
        <_>
          6 20 8 1 -1.</_>
        <_>
          10 20 4 1 2.</_></rects>
      <tilted>0</tilted></_>
    <_>
      <rects>
        <_>
          7 4 6 19 -1.</_>
        <_>
          10 4 3 19 2.</_></rects>
      <tilted>0</tilted></_>
    <_>
      <rects>
        <_>
          8 7 5 2 -1.</_>
        <_>
          8 8 5 1 2.</_></rects>
      <tilted>0</tilted></_>
    <_>
      <rects>
        <_>
          8 13 3 6 -1.</_>
        <_>
          9 13 1 6 2.</_></rects>
      <tilted>0</tilted></_>
    <_>
      <rects>
        <_>
          9 12 7 4 -1.</_>
        <_>
          9 14 7 2 2.</_></rects>
      <tilted>0</tilted></_>
    <_>
      <rects>
        <_>
          10 4 8 14 -1.</_>
        <_>
          10 4 4 7 2.</_>
        <_>
          14 11 4 7 2.</_></rects>
      <tilted>0</tilted></_>
    <_>
      <rects>
        <_>
          11 1 6 23 -1.</_>
        <_>
          14 1 3 23 2.</_></rects>
      <tilted>0</tilted></_>
    <_>
      <rects>
        <_>
          11 4 6 17 -1.</_>
        <_>
          14 4 3 17 2.</_></rects>
      <tilted>0</tilted></_>
    <_>
      <rects>
        <_>
          11 14 6 9 -1.</_>
        <_>
          11 17 6 3 2.</_></rects>
      <tilted>0</tilted></_>
    <_>
      <rects>
        <_>
          11 15 6 3 -1.</_>
        <_>
          13 15 2 3 2.</_></rects>
      <tilted>0</tilted></_>
    <_>
      <rects>
        <_>
          11 19 4 2 -1.</_>
        <_>
          13 19 2 2 2.</_></rects>
      <tilted>0</tilted></_>
    <_>
      <rects>
        <_>
          11 19 9 3 -1.</_>
        <_>
          14 19 3 3 2.</_></rects>
      <tilted>0</tilted></_>
    <_>
      <rects>
        <_>
          12 10 1 12 -1.</_>
        <_>
          12 14 1 4 2.</_></rects>
      <tilted>0</tilted></_>
    <_>
      <rects>
        <_>
          12 15 12 2 -1.</_>
        <_>
          18 15 6 2 2.</_></rects>
      <tilted>0</tilted></_>
    <_>
      <rects>
        <_>
          14 0 4 13 -1.</_>
        <_>
          16 0 2 13 2.</_></rects>
      <tilted>0</tilted></_></features></cascade>
</opencv_storage>
