<?xml version="1.0"?>
<opencv_storage>
<cascade>
  <stageType>BOOST</stageType>
  <featureType>LBP</featureType>
  <height>48</height>
  <width>48</width>
  <stageParams>
    <boostType>GAB</boostType>
    <minHitRate>9.9900001287460327e-01</minHitRate>
    <maxFalseAlarm>5.0000000000000000e-01</maxFalseAlarm>
    <weightTrimRate>9.4999999999999996e-01</weightTrimRate>
    <maxDepth>1</maxDepth>
    <maxWeakCount>100</maxWeakCount></stageParams>
  <featureParams>
    <maxCatCount>256</maxCatCount>
    <featSize>1</featSize></featureParams>
  <stageNum>9</stageNum>
  <stages>
    <!-- stage 0 -->
    <_>
      <maxWeakCount>1</maxWeakCount>
      <stageThreshold>1.</stageThreshold>
      <weakClassifiers>
        <_>
          <internalNodes>
            0 -1 0 -247991413 1107394561 98304 -1056730877 -1073643519
            131073 524931 -207629861</internalNodes>
          <leafValues>
            -1. 1.</leafValues></_></weakClassifiers></_>
    <!-- stage 1 -->
    <_>
      <maxWeakCount>1</maxWeakCount>
      <stageThreshold>1.</stageThreshold>
      <weakClassifiers>
        <_>
          <internalNodes>
            0 -1 4 -1073360801 -1048215551 67158233 -141475759
            -1820275975 -2147351928 -653669749 -204744565</internalNodes>
          <leafValues>
            -1. 1.</leafValues></_></weakClassifiers></_>
    <!-- stage 2 -->
    <_>
      <maxWeakCount>2</maxWeakCount>
      <stageThreshold>-9.5151633024215698e-02</stageThreshold>
      <weakClassifiers>
        <_>
          <internalNodes>
            0 -1 3 -913837681 -779542526 -2146877325 -787250671
            -1060536157 -2146893694 -2012552689 -112999925</internalNodes>
          <leafValues>
            -9.9496221542358398e-01 9.2233008146286011e-01</leafValues></_>
        <_>
          <internalNodes>
            0 -1 2 -234107237 -753713141 37121 -217907197 -2147319799
            -2147418112 -2147385205 -68425045</internalNodes>
          <leafValues>
            -1. 8.9981061220169067e-01</leafValues></_></weakClassifiers></_>
    <!-- stage 3 -->
    <_>
      <maxWeakCount>2</maxWeakCount>
      <stageThreshold>-1.0467241704463959e-01</stageThreshold>
      <weakClassifiers>
        <_>
          <internalNodes>
            0 -1 9 -791690801 -1878917112 1073741834 -754909184
            545390635 -2147317760 -788037494 -3173745</internalNodes>
          <leafValues>
            -9.4567900896072388e-01 8.7368422746658325e-01</leafValues></_>
        <_>
          <internalNodes>
            0 -1 13 -1056455805 -767475709 -2147483627 1426259971
            -2147106816 -2147287037 -2147303185 -1022627429</internalNodes>
          <leafValues>
            -9.6954625844955444e-01 8.4100657701492310e-01</leafValues></_></weakClassifiers></_>
    <!-- stage 4 -->
    <_>
      <maxWeakCount>2</maxWeakCount>
      <stageThreshold>-1.9924062490463257e-01</stageThreshold>
      <weakClassifiers>
        <_>
          <internalNodes>
            0 -1 6 -769699521 1342308608 -2147287030 -1040121856
            -1073114486 -2147450752 -2146926454 -336606565</internalNodes>
          <leafValues>
            -9.4527363777160645e-01 8.1632655858993530e-01</leafValues></_>
        <_>
          <internalNodes>
            0 -1 7 -117193721 -197066745 1073807364 -803799033 268566538
            -2146828128 -1073575765 -723653225</internalNodes>
          <leafValues>
            -9.5752108097076416e-01 7.4603301286697388e-01</leafValues></_></weakClassifiers></_>
    <!-- stage 5 -->
    <_>
      <maxWeakCount>2</maxWeakCount>
      <stageThreshold>-2.3553146421909332e-01</stageThreshold>
      <weakClassifiers>
        <_>
          <internalNodes>
            0 -1 11 -217075009 -788480000 49233 -385777391 547594377
            32770 -1052702678 -72432753</internalNodes>
          <leafValues>
            -9.4962215423583984e-01 7.4757283926010132e-01</leafValues></_>
        <_>
          <internalNodes>
            0 -1 15 -1283211117 289837056 8388608 -788069877 -2147434101
            65536 -2013167221 -236983921</internalNodes>
          <leafValues>
            -9.8310428857803345e-01 7.3038887977600098e-01</leafValues></_></weakClassifiers></_>
    <!-- stage 6 -->
    <_>
      <maxWeakCount>2</maxWeakCount>
      <stageThreshold>-3.0678904056549072e-01</stageThreshold>
      <weakClassifiers>
        <_>
          <internalNodes>
            0 -1 14 -800591217 -805223935 167919633 -778469375 822247562
            8 -534527858 -296759413</internalNodes>
          <leafValues>
            -9.5396417379379272e-01 6.6972476243972778e-01</leafValues></_>
        <_>
          <internalNodes>
            0 -1 1 -267005737 -1048207344 -2147483559 1895928081
            -2138845046 -1607991166 33657131 -3153045</internalNodes>
          <leafValues>
            -9.7651380300521851e-01 7.4289673566818237e-01</leafValues></_></weakClassifiers></_>
    <!-- stage 7 -->
    <_>
      <maxWeakCount>2</maxWeakCount>
      <stageThreshold>-3.2066720724105835e-01</stageThreshold>
      <weakClassifiers>
        <_>
          <internalNodes>
            0 -1 10 -745810981 -955695101 151142490 -788201201
            -2139049842 713031808 -2130342257 -74481525</internalNodes>
          <leafValues>
            -9.7974681854248047e-01 8.2857143878936768e-01</leafValues></_>
        <_>
          <internalNodes>
            0 -1 5 -788442639 -788520960 268439705 -654241775 250
            1073741826 -1878515045 -83132278</internalNodes>
          <leafValues>
            -9.8891997337341309e-01 6.5907961130142212e-01</leafValues></_></weakClassifiers></_>
    <!-- stage 8 -->
    <_>
      <maxWeakCount>3</maxWeakCount>
      <stageThreshold>-1.1672041416168213e+00</stageThreshold>
      <weakClassifiers>
        <_>
          <internalNodes>
            0 -1 12 -97524605 -610697216 16843024 1518567424 164520
            -2004352895 1744830635 -69496613</internalNodes>
          <leafValues>
            -9.5384615659713745e-01 6.5454542636871338e-01</leafValues></_>
        <_>
          <internalNodes>
            0 -1 16 -1660710253 285261826 0 826277892 -2147450749
            -2146959360 -2147385206 -237256565</internalNodes>
          <leafValues>
            -9.3086689710617065e-01 7.4896585941314697e-01</leafValues></_>
        <_>
          <internalNodes>
            0 -1 8 -1048059173 -788127743 16842753 -280756221 1392607235
            -2013134840 -2147450229 -86011859</internalNodes>
          <leafValues>
            -9.5255184173583984e-01 7.1750891208648682e-01</leafValues></_></weakClassifiers></_></stages>
  <features>
    <_>
      <rect>
        0 0 16 11</rect></_>
    <_>
      <rect>
        0 16 7 6</rect></_>
    <_>
      <rect>
        0 23 8 6</rect></_>
    <_>
      <rect>
        1 12 8 8</rect></_>
    <_>
      <rect>
        2 6 15 4</rect></_>
    <_>
      <rect>
        12 41 8 1</rect></_>
    <_>
      <rect>
        14 30 3 5</rect></_>
    <_>
      <rect>
        15 2 7 12</rect></_>
    <_>
      <rect>
        16 2 3 6</rect></_>
    <_>
      <rect>
        18 38 2 2</rect></_>
    <_>
      <rect>
        23 34 5 3</rect></_>
    <_>
      <rect>
        24 1 4 6</rect></_>
    <_>
      <rect>
        25 9 3 2</rect></_>
    <_>
      <rect>
        27 0 7 14</rect></_>
    <_>
      <rect>
        31 11 5 7</rect></_>
    <_>
      <rect>
        32 22 4 7</rect></_>
    <_>
      <rect>
        37 24 2 3</rect></_></features></cascade>
</opencv_storage>
