<?xml version="1.0"?>
<opencv_storage>
<cascade>
  <stageType>BOOST</stageType>
  <featureType>LBP</featureType>
  <height>48</height>
  <width>48</width>
  <stageParams>
    <boostType>GAB</boostType>
    <minHitRate>9.9900001287460327e-01</minHitRate>
    <maxFalseAlarm>5.0000000000000000e-01</maxFalseAlarm>
    <weightTrimRate>9.4999999999999996e-01</weightTrimRate>
    <maxDepth>1</maxDepth>
    <maxWeakCount>100</maxWeakCount></stageParams>
  <featureParams>
    <maxCatCount>256</maxCatCount>
    <featSize>1</featSize></featureParams>
  <stageNum>9</stageNum>
  <stages>
    <!-- stage 0 -->
    <_>
      <maxWeakCount>1</maxWeakCount>
      <stageThreshold>1.</stageThreshold>
      <weakClassifiers>
        <_>
          <internalNodes>
            0 -1 0 -222170885 -787267581 -1879031739 -788070333
            -1744715638 1090519040 823312539 -205809013</internalNodes>
          <leafValues>
            -1. 1.</leafValues></_></weakClassifiers></_>
    <!-- stage 1 -->
    <_>
      <maxWeakCount>1</maxWeakCount>
      <stageThreshold>1.</stageThreshold>
      <weakClassifiers>
        <_>
          <internalNodes>
            0 -1 1 -726932821 8454144 16401 -1862057949 98435 1073741834
            -2147434389 -207895605</internalNodes>
          <leafValues>
            -1. 1.</leafValues></_></weakClassifiers></_>
    <!-- stage 2 -->
    <_>
      <maxWeakCount>2</maxWeakCount>
      <stageThreshold>-6.0485895723104477e-02</stageThreshold>
      <weakClassifiers>
        <_>
          <internalNodes>
            0 -1 6 -805047305 -780050430 1073795097 -251543541
            -1073639224 -366833662 -805105446 -6297169</internalNodes>
          <leafValues>
            -9.8014891147613525e-01 9.7938144207000732e-01</leafValues></_>
        <_>
          <internalNodes>
            0 -1 9 -787803425 -654209007 268435729 -720175103
            -2147370847 -1467973624 -1056865877 -74727285</internalNodes>
          <leafValues>
            -9.7535657882690430e-01 9.1966301202774048e-01</leafValues></_></weakClassifiers></_>
    <!-- stage 3 -->
    <_>
      <maxWeakCount>2</maxWeakCount>
      <stageThreshold>-3.1039202585816383e-02</stageThreshold>
      <weakClassifiers>
        <_>
          <internalNodes>
            0 -1 7 1128514463 2039202435 49283 -502546169 -921447469
            -939458365 -1425813285 -3149617</internalNodes>
          <leafValues>
            -9.8004984855651855e-01 9.3939393758773804e-01</leafValues></_>
        <_>
          <internalNodes>
            0 -1 3 -213659169 1373373355 -1023344171 -398110629
            -1568435293 -653360749 723632123 -11573</internalNodes>
          <leafValues>
            -9.7043311595916748e-01 9.8375761508941650e-01</leafValues></_></weakClassifiers></_>
    <!-- stage 4 -->
    <_>
      <maxWeakCount>2</maxWeakCount>
      <stageThreshold>-1.5434609353542328e-01</stageThreshold>
      <weakClassifiers>
        <_>
          <internalNodes>
            0 -1 15 -788279229 1879310337 65537 -184336381 -2147450745
            -2147417984 -1073512309 -367015269</internalNodes>
          <leafValues>
            -9.7969543933868408e-01 8.1132078170776367e-01</leafValues></_>
        <_>
          <internalNodes>
            0 -1 2 -1056718325 -1072988160 65667 1090584578 -2147319157
            2 1745062057 -69211513</internalNodes>
          <leafValues>
            -9.2710018157958984e-01 8.2534933090209961e-01</leafValues></_></weakClassifiers></_>
    <!-- stage 5 -->
    <_>
      <maxWeakCount>2</maxWeakCount>
      <stageThreshold>-4.2336601018905640e-01</stageThreshold>
      <weakClassifiers>
        <_>
          <internalNodes>
            0 -1 5 -779894641 1191804930 65536 1359413262 -1065123197
            65536 -536641397 -202381159</internalNodes>
          <leafValues>
            -9.6315789222717285e-01 5.5000001192092896e-01</leafValues></_>
        <_>
          <internalNodes>
            0 -1 13 -482225189 -754745342 1089 -1022672381 -2147417981
            65536 197003 -5970993</internalNodes>
          <leafValues>
            -9.7336602210998535e-01 5.8625143766403198e-01</leafValues></_></weakClassifiers></_>
    <!-- stage 6 -->
    <_>
      <maxWeakCount>2</maxWeakCount>
      <stageThreshold>-3.2121196389198303e-01</stageThreshold>
      <weakClassifiers>
        <_>
          <internalNodes>
            0 -1 4 1942475103 -747121795 50446541 1409208533 -242234951
            -1452338788 -1853097793 -1011358823</internalNodes>
          <leafValues>
            -9.5897436141967773e-01 6.7272728681564331e-01</leafValues></_>
        <_>
          <internalNodes>
            0 -1 11 -267975921 -788365173 16384 -1874753344 -2146889269
            -2147250176 -1067351935 -186126449</internalNodes>
          <leafValues>
            -9.9393922090530396e-01 6.5975975990295410e-01</leafValues></_></weakClassifiers></_>
    <!-- stage 7 -->
    <_>
      <maxWeakCount>2</maxWeakCount>
      <stageThreshold>-2.6525428891181946e-01</stageThreshold>
      <weakClassifiers>
        <_>
          <internalNodes>
            0 -1 8 -800592373 -2147237631 -2147483567 -800489407
            -1056909695 -2130444032 258 -102782289</internalNodes>
          <leafValues>
            -9.1133004426956177e-01 7.4468082189559937e-01</leafValues></_>
        <_>
          <internalNodes>
            0 -1 12 -934575222 -805142528 65616 -1064763263 -2147418102
            688128 -2130542335 -268180717</internalNodes>
          <leafValues>
            -9.6025580167770386e-01 6.4607572555541992e-01</leafValues></_></weakClassifiers></_>
    <!-- stage 8 -->
    <_>
      <maxWeakCount>2</maxWeakCount>
      <stageThreshold>-3.1696477532386780e-01</stageThreshold>
      <weakClassifiers>
        <_>
          <internalNodes>
            0 -1 14 1644552519 1362477061 268451925 1565377677
            -1073509878 16875532 -805109618 -83893301</internalNodes>
          <leafValues>
            -9.3924051523208618e-01 6.7619049549102783e-01</leafValues></_>
        <_>
          <internalNodes>
            0 -1 10 -418671425 -787414912 1208490241 -720830463
            -1879007045 -268398592 -2147446117 -846348279</internalNodes>
          <leafValues>
            -9.2389410734176636e-01 6.2227576971054077e-01</leafValues></_></weakClassifiers></_></stages>
  <features>
    <_>
      <rect>
        0 4 16 4</rect></_>
    <_>
      <rect>
        0 22 15 8</rect></_>
    <_>
      <rect>
        1 9 6 8</rect></_>
    <_>
      <rect>
        3 28 13 5</rect></_>
    <_>
      <rect>
        8 23 11 8</rect></_>
    <_>
      <rect>
        10 4 4 7</rect></_>
    <_>
      <rect>
        11 25 9 6</rect></_>
    <_>
      <rect>
        12 24 8 8</rect></_>
    <_>
      <rect>
        16 9 6 12</rect></_>
    <_>
      <rect>
        16 29 6 3</rect></_>
    <_>
      <rect>
        17 25 4 2</rect></_>
    <_>
      <rect>
        18 2 5 4</rect></_>
    <_>
      <rect>
        20 4 2 2</rect></_>
    <_>
      <rect>
        21 1 5 7</rect></_>
    <_>
      <rect>
        22 4 8 10</rect></_>
    <_>
      <rect>
        27 4 7 10</rect></_></features></cascade>
</opencv_storage>
